
\data\
ngram 1=12
ngram 2=120

\1-grams:
-1.073275	0	0
-0.9735642	1	0
-1.070768	2	0
-1.079268	3	0
-0.9768776	4	0
-1.073016	5	0
-1.068398	6	0
-1.067084	7	0
-1.075214	8	0
-1.072364	9	0
-0.9542446	</s>
-99	<s>	-3.666429

\2-grams:
-1.107098	0 0
-0.9546798	0 1
-1.07578	0 2
-1.085272	0 3
-0.9487287	0 4
-1.073002	0 5
-1.088278	0 6
-1.09344	0 7
-1.103175	0 8
-1.084073	0 9
-0.906109	0 </s>
-1.048987	1 0
-1.054587	1 1
-1.086039	1 2
-1.057624	1 3
-1.050169	1 4
-1.072639	1 5
-1.050083	1 6
-1.047781	1 7
-1.050195	1 8
-1.074262	1 9
-0.8957514	1 </s>
-1.074926	2 0
-0.9405288	2 1
-1.086578	2 2
-1.089882	2 3
-0.9758961	2 4
-1.087327	2 5
-1.095336	2 6
-1.069284	2 7
-1.105681	2 8
-1.082264	2 9
-0.9074256	2 </s>
-1.082741	3 0
-0.9427364	3 1
-1.09687	3 2
-1.104909	3 3
-0.9641668	3 4
-1.085926	3 5
-1.08944	3 6
-1.090361	3 7
-1.076292	3 8
-1.097652	3 9
-0.8938125	3 </s>
-1.049528	4 0
-1.051385	4 1
-1.04997	4 2
-1.075272	4 3
-1.088709	4 4
-1.04997	4 5
-1.061752	4 6
-1.04721	4 7
-1.037961	4 8
-1.055541	4 9
-0.9136696	4 </s>
-1.106254	5 0
-0.9748081	5 1
-1.076625	5 2
-1.083437	5 3
-0.9614246	5 4
-1.106726	5 5
-1.077654	5 6
-1.06546	5 7
-1.09646	5 8
-1.080758	5 9
-0.8889574	5 </s>
-1.061433	6 0
-0.989533	6 1
-1.071081	6 2
-1.10231	6 3
-0.9645795	6 4
-1.085078	6 5
-1.088051	6 6
-1.069076	6 7
-1.099849	6 8
-1.081537	6 9
-0.896732	6 </s>
-1.088025	7 0
-0.9609799	7 1
-1.076431	7 2
-1.073403	7 3
-0.9684831	7 4
-1.09689	7 5
-1.075996	7 6
-1.102542	7 7
-1.092361	7 8
-1.095526	7 9
-0.8891108	7 </s>
-1.089067	8 0
-0.9720306	8 1
-1.077968	8 2
-1.107691	8 3
-0.9650112	8 4
-1.088156	8 5
-1.069172	8 6
-1.076783	8 7
-1.079601	8 8
-1.068448	8 9
-0.9117791	8 </s>
-1.097881	9 0
-0.956813	9 1
-1.083341	9 2
-1.083344	9 3
-0.9548153	9 4
-1.053557	9 5
-1.079781	9 6
-1.085281	9 7
-1.094354	9 8
-1.088285	9 9
-0.9287938	9 </s>
-1.033151	<s> 0
-0.9152238	<s> 1
-1.021087	<s> 2
-1.035585	<s> 3
-0.9110069	<s> 4
-1.029928	<s> 5
-1.009924	<s> 6
-1.022169	<s> 7
-1.030531	<s> 8
-1.016296	<s> 9

\end\
