
\data\
ngram 1=12
ngram 2=120
ngram 3=1200

\1-grams:
-1.073276	0	0
-0.9735626	1	0
-1.070769	2	0
-1.079269	3	0
-0.976876	4	0
-1.073017	5	0
-1.068399	6	0
-1.067085	7	0
-1.075215	8	0
-1.072365	9	0
-0.9542425	</s>
-99	<s>	-99

\2-grams:
-1.107109	0 0	0
-0.954674	0 1	0
-1.075781	0 2	0
-1.085274	0 3	0
-0.9487202	0 4	0
-1.073002	0 5	0
-1.088284	0 6	0
-1.093449	0 7	0
-1.103184	0 8	0
-1.084076	0 9	0
-0.9060948	0 </s>
-1.048981	1 0	0
-1.054609	1 1	0
-1.086043	1 2	0
-1.057618	1 3	0
-1.050189	1 4	0
-1.072639	1 5	0
-1.050079	1 6	0
-1.047777	1 7	0
-1.050189	1 8	0
-1.074263	1 9	0
-0.8957379	1 </s>
-1.074926	2 0	0
-0.9405189	2 1	0
-1.086583	2 2	0
-1.089885	2 3	0
-0.9758958	2 4	0
-1.087331	2 5	0
-1.095345	2 6	0
-1.069285	2 7	0
-1.105691	2 8	0
-1.082267	2 9	0
-0.9074119	2 </s>
-1.082744	3 0	0
-0.942727	3 1	0
-1.096879	3 2	0
-1.104917	3 3	0
-0.9641628	3 4	0
-1.08593	3 5	0
-1.089447	3 6	0
-1.090369	3 7	0
-1.076292	3 8	0
-1.09766	3 9	0
-0.8937946	3 </s>
-1.049522	4 0	0
-1.051407	4 1	0
-1.049965	4 2	0
-1.075271	4 3	0
-1.088741	4 4	0
-1.049965	4 5	0
-1.06175	4 6	0
-1.047205	4 7	0
-1.037952	4 8	0
-1.055537	4 9	0
-0.9136599	4 </s>
-1.106265	5 0	0
-0.9748085	5 1	0
-1.076627	5 2	0
-1.083439	5 3	0
-0.9614199	5 4	0
-1.106737	5 5	0
-1.077657	5 6	0
-1.065459	5 7	0
-1.096467	5 8	0
-1.08076	5 9	0
-0.8889385	5 </s>
-1.06143	6 0	0
-0.9895381	6 1	0
-1.071081	6 2	0
-1.102317	6 3	0
-0.9645757	6 4	0
-1.085082	6 5	0
-1.088057	6 6	0
-1.069076	6 7	0
-1.099857	6 8	0
-1.081539	6 9	0
-0.8967154	6 </s>
-1.08803	7 0	0
-0.9609761	7 1	0
-1.076432	7 2	0
-1.073401	7 3	0
-0.9684805	7 4	0
-1.096898	7 5	0
-1.075998	7 6	0
-1.102553	7 7	0
-1.092366	7 8	0
-1.095533	7 9	0
-0.8890922	7 </s>
-1.089072	8 0	0
-0.9720301	8 1	0
-1.07797	8 2	0
-1.1077	8 3	0
-0.9650075	8 4	0
-1.088161	8 5	0
-1.069172	8 6	0
-1.076787	8 7	0
-1.079602	8 8	0
-1.068447	8 9	0
-0.9117664	8 </s>
-1.097889	9 0	0
-0.9568079	9 1	0
-1.083345	9 2	0
-1.083345	9 3	0
-0.9548085	9 4	0
-1.053551	9 5	0
-1.079784	9 6	0
-1.085286	9 7	0
-1.09436	9 8	0
-1.08829	9 9	0
-0.9287861	9 </s>
-1.033143	<s> 0	-2.726992
-0.915212	<s> 1	-2.85526
-1.021077	<s> 2	-2.737682
-1.035576	<s> 3	-2.736843
-0.9109937	<s> 4	-2.841526
-1.029919	<s> 5	-2.747316
-1.009912	<s> 6	-2.75962
-1.02216	<s> 7	-2.754881
-1.030522	<s> 8	-2.723925
-1.016284	<s> 9	-2.721124

\3-grams:
-1.25812	0 0 0
-0.9430343	0 0 1
-1.023323	0 0 2
-1.12821	0 0 3
-0.9034055	0 0 4
-1.111584	0 0 5
-1.082029	0 0 6
-1.093611	0 0 7
-1.168122	0 0 8
-1.056149	0 0 9
-0.8533766	0 0 </s>
-1.043922	1 0 0
-1.105044	1 0 1
-1.061246	1 0 2
-1.053737	1 0 3
-1.008973	1 0 4
-1.066326	1 0 5
-1.110667	1 0 6
-1.045137	1 0 7
-1.079291	1 0 8
-1.100875	1 0 9
-0.8480685	1 0 </s>
-1.099905	2 0 0
-0.8802607	2 0 1
-1.096255	2 0 2
-1.111041	2 0 3
-0.9548253	2 0 4
-1.083718	2 0 5
-1.146274	2 0 6
-1.130261	2 0 7
-1.107297	2 0 8
-1.06982	2 0 9
-0.8891925	2 0 </s>
-1.063884	3 0 0
-0.9217772	3 0 1
-1.170534	3 0 2
-1.15514	3 0 3
-0.899627	3 0 4
-1.055215	3 0 5
-1.198264	3 0 6
-1.203063	3 0 7
-1.104227	3 0 8
-1.03838	3 0 9
-0.8350863	3 0 </s>
-1.071506	4 0 0
-1.067611	4 0 1
-1.028103	4 0 2
-1.113943	4 0 3
-1.031657	4 0 4
-1.074122	4 0 5
-1.028103	4 0 6
-1.074122	4 0 7
-1.172346	4 0 8
-1.074122	4 0 9
-0.8179759	4 0 </s>
-1.176249	5 0 0
-0.9147272	5 0 1
-1.090818	5 0 2
-1.090818	5 0 3
-0.9624999	5 0 4
-1.044867	5 0 5
-1.108628	5 0 6
-1.12092	5 0 7
-1.123003	5 0 8
-1.077454	5 0 9
-0.8612828	5 0 </s>
-1.166238	6 0 0
-1.00622	6 0 1
-1.077221	6 0 2
-1.031128	6 0 3
-0.8961278	6 0 4
-1.046476	6 0 5
-1.10313	6 0 6
-1.106705	6 0 7
-1.062386	6 0 8
-1.178766	6 0 9
-0.887376	6 0 </s>
-1.143015	7 0 0
-0.9286757	7 0 1
-1.109208	7 0 2
-1.072537	7 0 3
-0.9641748	7 0 4
-1.0604	7 0 5
-1.103506	7 0 6
-1.164204	7 0 7
-1.149264	7 0 8
-1.092322	7 0 9
-0.8149266	7 0 </s>
-1.137999	8 0 0
-0.9195038	8 0 1
-1.137999	8 0 2
-1.161596	8 0 3
-0.9245833	8 0 4
-1.094334	8 0 5
-1.052942	8 0 6
-1.109709	8 0 7
-1.096227	8 0 8
-1.137999	8 0 9
-0.8338482	8 0 </s>
-1.094069	9 0 0
-0.9573347	9 0 1
-1.073518	9 0 2
-1.073518	9 0 3
-0.9672215	9 0 4
-1.127876	9 0 5
-1.111639	9 0 6
-1.017126	9 0 7
-1.125813	9 0 8
-1.121715	9 0 9
-0.8726033	9 0 </s>
-1.046477	<s> 0 0
-0.8741524	<s> 0 1
-1.033181	<s> 0 2
-1.017114	<s> 0 3
-0.9162266	<s> 0 4
-1.059033	<s> 0 5
-1.011888	<s> 0 6
-1.045353	<s> 0 7
-1.013971	<s> 0 8
-1.02347	<s> 0 9
-1.058373	0 1 0
-1.042171	0 1 1
-1.09134	0 1 2
-1.128506	0 1 3
-1.05082	0 1 4
-1.042171	0 1 5
-1.040949	0 1 6
-1.06606	0 1 7
-1.089972	0 1 8
-1.106677	0 1 9
-0.8230215	0 1 </s>
-1.045634	1 1 0
-1.148132	1 1 1
-1.120885	1 1 2
-1.061977	1 1 3
-1.026329	1 1 4
-1.08975	1 1 5
-1.078959	1 1 6
-0.9912038	1 1 7
-1.056883	1 1 8
-1.081632	1 1 9
-0.8385937	1 1 </s>
-1.040859	2 1 0
-1.046768	2 1 1
-1.114906	2 1 2
-1.015774	2 1 3
-1.149668	2 1 4
-1.075034	2 1 5
-1.091865	2 1 6
-1.10527	2 1 7
-1.062518	2 1 8
-1.081431	2 1 9
-0.7901751	2 1 </s>
-1.048124	3 1 0
-1.026644	3 1 1
-1.127061	3 1 2
-1.101423	3 1 3
-1.007288	3 1 4
-1.125596	3 1 5
-1.04447	3 1 6
-1.055527	3 1 7
-1.03606	3 1 8
-1.090497	3 1 9
-0.8603654	3 1 </s>
-1.112059	4 1 0
-1.061866	4 1 1
-1.119309	4 1 2
-1.051736	4 1 3
-1.030964	4 1 4
-1.088275	4 1 5
-1.001001	4 1 6
-1.028585	4 1 7
-1.023864	4 1 8
-1.08421	4 1 9
-0.8992187	4 1 </s>
-1.098307	5 1 0
-1.128478	5 1 1
-1.059306	5 1 2
-1.043606	5 1 3
-1.061978	5 1 4
-1.052695	5 1 5
-1.035965	5 1 6
-1.122274	5 1 7
-0.9938839	5 1 8
-1.059306	5 1 9
-0.8641022	5 1 </s>
-1.065482	6 1 0
-1.07669	6 1 1
-1.066867	6 1 2
-1.032212	6 1 3
-1.080969	6 1 4
-1.142456	6 1 5
-1.062725	6 1 6
-1.072453	6 1 7
-1.023336	6 1 8
-1.049194	6 1 9
-0.8497621	6 1 </s>
-1.067243	7 1 0
-1.024086	7 1 1
-1.093977	7 1 2
-1.068541	7 1 3
-1.109414	7 1 4
-1.095358	7 1 5
-1.063371	7 1 6
-1.059533	7 1 7
-1.106566	7 1 8
-1.065948	7 1 9
-0.8012993	7 1 </s>
-1.035285	8 1 0
-1.039078	8 1 1
-1.077559	8 1 2
-1.05459	8 1 3
-1.070677	8 1 4
-1.066599	8 1 5
-1.067954	8 1 6
-1.098888	8 1 7
-1.091661	8 1 8
-1.121317	8 1 9
-0.8179915	8 1 </s>
-0.9587187	9 1 0
-1.045869	9 1 1
-1.155013	9 1 2
-1.053357	9 1 3
-1.076628	9 1 4
-1.064837	9 1 5
-1.14247	9 1 6
-1.044633	9 1 7
-1.068732	9 1 8
-1.106876	9 1 9
-0.8360637	9 1 </s>
-1.035804	<s> 1 0
-1.008246	<s> 1 1
-0.9882924	<s> 1 2
-1.040008	<s> 1 3
-0.9613903	<s> 1 4
-1.006678	<s> 1 5
-0.9779163	<s> 1 6
-0.9578794	<s> 1 7
-1.022617	<s> 1 8
-1.010608	<s> 1 9
-1.155321	0 2 0
-0.9259846	0 2 1
-1.147009	0 2 2
-1.096543	0 2 3
-0.9436618	0 2 4
-1.115266	0 2 5
-1.117183	0 2 6
-1.057992	0 2 7
-1.119109	0 2 8
-1.022585	0 2 9
-0.8703188	0 2 </s>
-1.07787	1 2 0
-1.092396	1 2 1
-1.038299	1 2 2
-1.093876	1 2 3
-1.040915	1 2 4
-1.076443	1 2 5
-1.070785	1 2 6
-1.054238	1 2 7
-1.054238	1 2 8
-1.070785	1 2 9
-0.8472528	1 2 </s>
-1.155501	2 2 0
-0.9264382	2 2 1
-1.144933	2 2 2
-1.072062	2 2 3
-0.9042881	2 2 4
-1.079181	2 2 5
-1.110814	2 2 6
-1.07383	2 2 7
-1.205318	2 2 8
-1.128543	2 2 9
-0.8275129	2 2 </s>
-1.020955	3 2 0
-0.9127221	3 2 1
-1.105744	3 2 2
-1.158644	3 2 3
-0.9908826	3 2 4
-1.101778	3 2 5
-1.141005	3 2 6
-1.020955	3 2 7
-1.136705	3 2 8
-1.130334	3 2 9
-0.8576137	3 2 </s>
-0.9903632	4 2 0
-1.00692	4 2 1
-1.096578	4 2 2
-1.100747	4 2 3
-1.110634	4 2 4
-1.050682	4 2 5
-1.056949	4 2 6
-1.032406	4 2 7
-1.082963	4 2 8
-1.176867	4 2 9
-0.8422285	4 2 </s>
-1.086889	5 2 0
-0.9229297	5 2 1
-1.062464	5 2 2
-1.094127	5 2 3
-0.930375	5 2 4
-1.152641	5 2 5
-1.152641	5 2 6
-1.132248	5 2 7
-1.124352	5 2 8
-1.060771	5 2 9
-0.86111	5 2 </s>
-1.104292	6 2 0
-0.9519522	6 2 1
-1.142412	6 2 2
-1.091703	6 2 3
-0.9937305	6 2 4
-1.064228	6 2 5
-1.167002	6 2 6
-1.041536	6 2 7
-1.072629	6 2 8
-1.119141	6 2 9
-0.8257305	6 2 </s>
-1.102083	7 2 0
-0.930289	7 2 1
-1.066898	7 2 2
-1.05032	7 2 3
-0.9415375	7 2 4
-1.184576	7 2 5
-1.091225	7 2 6
-1.100255	7 2 7
-1.138375	7 2 8
-1.09662	7 2 9
-0.8672372	7 2 </s>
-1.092416	8 2 0
-0.9096568	8 2 1
-1.053864	8 2 2
-1.151194	8 2 3
-1.024684	8 2 4
-1.105436	8 2 5
-1.096096	8 2 6
-1.128708	8 2 7
-1.109229	8 2 8
-1.077998	8 2 9
-0.8286747	8 2 </s>
-1.148668	9 2 0
-0.970484	9 2 1
-1.099151	9 2 2
-1.056399	9 2 3
-0.951421	9 2 4
-1.116334	9 2 5
-1.056399	9 2 6
-1.102911	9 2 7
-1.126182	9 2 8
-1.038127	9 2 9
-0.8758068	9 2 </s>
-0.9997051	<s> 2 0
-0.8430381	<s> 2 1
-1.045244	<s> 2 2
-1.055178	<s> 2 3
-0.9216717	<s> 2 4
-1.003653	<s> 2 5
-1.050735	<s> 2 6
-1.055178	<s> 2 7
-1.061929	<s> 2 8
-1.020845	<s> 2 9
-1.150045	0 3 0
-0.9290442	0 3 1
-1.131385	0 3 2
-1.158602	0 3 3
-0.9832321	0 3 4
-1.062125	0 3 5
-1.113494	0 3 6
-1.121354	0 3 7
-1.033664	0 3 8
-1.081587	0 3 9
-0.8253106	0 3 </s>
-1.024501	1 3 0
-1.095013	1 3 1
-1.117876	1 3 2
-1.102029	1 3 3
-0.9903769	1 3 4
-1.020966	1 3 5
-1.088108	1 3 6
-1.114951	1 3 7
-1.071972	1 3 8
-1.092238	1 3 9
-0.8287449	1 3 </s>
-1.101759	2 3 0
-0.9106907	2 3 1
-1.092338	2 3 2
-1.174137	2 3 3
-0.9811275	2 3 4
-1.152198	2 3 5
-1.074088	2 3 6
-1.152198	2 3 7
-1.072304	2 3 8
-1.12928	2 3 9
-0.791308	2 3 </s>
-1.13731	3 3 0
-0.8373721	3 3 1
-1.080137	3 3 2
-1.072551	3 3 3
-0.8996042	3 3 4
-1.16665	3 3 5
-1.168991	3 3 6
-1.120192	3 3 7
-1.097706	3 3 8
-1.18089	3 3 9
-0.8847126	3 3 </s>
-1.034176	4 3 0
-1.060346	4 3 1
-1.072657	4 3 2
-1.010695	4 3 3
-1.088195	4 3 4
-1.068515	4 3 5
-1.11032	4 3 6
-1.049688	4 3 7
-1.089635	4 3 8
-1.063052	4 3 9
-0.8640512	4 3 </s>
-1.067694	5 3 0
-0.9362631	5 3 1
-1.173858	5 3 2
-1.094677	5 3 3
-0.9087985	5 3 4
-1.100281	5 3 5
-1.171637	5 3 6
-1.032529	5 3 7
-1.045592	5 3 8
-1.243785	5 3 9
-0.8500512	5 3 </s>
-1.099385	6 3 0
-0.9696257	6 3 1
-1.065817	6 3 2
-1.19436	6 3 3
-0.9568723	6 3 4
-1.076721	6 3 5
-1.080417	6 3 6
-1.12535	6 3 7
-1.065817	6 3 8
-1.127413	6 3 9
-0.8222668	6 3 </s>
-1.063223	7 3 0
-0.8660213	7 3 1
-1.147425	7 3 2
-1.121928	7 3 3
-0.9747131	7 3 4
-1.105115	7 3 5
-1.121928	7 3 6
-1.155581	7 3 7
-1.125755	7 3 8
-1.108795	7 3 9
-0.8295556	7 3 </s>
-1.1564	8 3 0
-0.9574265	8 3 1
-1.13858	8 3 2
-1.163276	8 3 3
-0.9559908	8 3 4
-1.142967	8 3 5
-1.083325	8 3 6
-1.071945	8 3 7
-1.064521	8 3 8
-1.034313	8 3 9
-0.8235916	8 3 </s>
-1.095423	9 3 0
-0.90593	9 3 1
-1.140356	9 3 2
-1.099151	9 3 3
-0.997771	9 3 4
-1.170172	9 3 5
-1.03007	9 3 6
-1.054705	9 3 7
-1.126182	9 3 8
-1.102911	9 3 9
-0.8529152	9 3 </s>
-1.058922	<s> 3 0
-0.9096455	<s> 3 1
-0.9911448	<s> 3 2
-1.0566	<s> 3 3
-0.8950323	<s> 3 4
-0.9991875	<s> 3 5
-1.009455	<s> 3 6
-1.045171	<s> 3 7
-1.060088	<s> 3 8
-1.013631	<s> 3 9
-1.11691	0 4 0
-1.066874	0 4 1
-1.050578	0 4 2
-1.056773	0 4 3
-1.11691	0 4 4
-1.13297	0 4 5
-1.059277	0 4 6
-1.031326	0 4 7
-1.010642	0 4 8
-1.058023	0 4 9
-0.8364249	0 4 </s>
-1.045147	1 4 0
-1.057521	1 4 1
-1.066397	1 4 2
-1.09417	1 4 3
-1.101053	1 4 4
-1.015672	1 4 5
-1.043929	1 4 6
-1.078083	1 4 7
-1.101053	1 4 8
-1.065118	1 4 9
-0.8507419	1 4 </s>
-0.9973423	2 4 0
-1.05781	2 4 1
-1.085133	2 4 2
-1.083725	2 4 3
-1.075373	2 4 4
-1.053856	2 4 5
-1.087962	2 4 6
-1.049937	2 4 7
-1.030858	2 4 8
-1.068534	2 4 9
-0.9015858	2 4 </s>
-1.032849	3 4 0
-1.062369	3 4 1
-1.061043	3 4 2
-1.111534	3 4 3
-1.029142	3 4 4
-1.092617	3 4 5
-1.055779	3 4 6
-1.07723	3 4 7
-1.026689	3 4 8
-1.114519	3 4 9
-0.8551064	3 4 </s>
-1.104482	4 4 0
-1.041514	4 4 1
-1.06901	4 4 2
-1.046875	4 4 3
-1.179983	4 4 4
-1.049581	4 4 5
-1.059187	4 4 6
-1.044186	4 4 7
-0.99363	4 4 8
-1.071858	4 4 9
-0.8654225	4 4 </s>
-1.022431	5 4 0
-1.070038	5 4 1
-1.034462	5 4 2
-1.095953	5 4 3
-1.103038	5 4 4
-1.110241	5 4 5
-1.044333	5 4 6
-1.038137	5 4 7
-1.122019	5 4 8
-1.040605	5 4 9
-0.8463393	5 4 </s>
-1.067546	6 4 0
-1.053348	6 4 1
-1.134056	6 4 2
-1.045795	6 4 3
-1.03228	6 4 4
-1.035924	6 4 5
-1.049555	6 4 6
-1.034706	6 4 7
-1.096012	6 4 8
-1.072826	6 4 9
-0.8815104	6 4 </s>
-1.12089	7 4 0
-1.090629	7 4 1
-1.058444	7 4 2
-1.071566	7 4 3
-1.052029	7 4 4
-1.063645	7 4 5
-1.071566	7 4 6
-1.037009	7 4 7
-1.093422	7 4 8
-1.055867	7 4 9
-0.8221048	7 4 </s>
-1.074976	8 4 0
-1.065579	8 4 1
-1.038547	8 4 2
-1.073621	8 4 3
-1.148763	8 4 4
-1.038547	8 4 5
-1.117728	8 4 6
-1.072271	8 4 7
-1.010752	8 4 8
-1.066909	8 4 9
-0.8319383	8 4 </s>
-1.011112	9 4 0
-1.092116	9 4 1
-1.073347	9 4 2
-1.144469	9 4 3
-1.057881	9 4 4
-1.08263	9 4 5
-1.124828	9 4 6
-1.08263	9 4 7
-1.007715	9 4 8
-1.005464	9 4 9
-0.8520237	9 4 </s>
-1.00084	<s> 4 0
-0.9656079	<s> 4 1
-0.9537849	<s> 4 2
-1.034203	<s> 4 3
-1.102942	<s> 4 4
-0.9530993	<s> 4 5
-1.007001	<s> 4 6
-1.00314	<s> 4 7
-0.9792143	<s> 4 8
-1.021189	<s> 4 9
-1.116136	0 5 0
-0.9542425	0 5 1
-1.028466	0 5 2
-1.202229	0 5 3
-0.8977292	0 5 4
-1.186269	0 5 5
-1.114235	0 5 6
-1.108582	0 5 7
-1.133626	0 5 8
-1.177405	0 5 9
-0.7707791	0 5 </s>
-1.063602	1 5 0
-1.117781	1 5 1
-1.055633	1 5 2
-1.075837	1 5 3
-1.046517	1 5 4
-1.107279	1 5 5
-1.022697	1 5 6
-1.027604	1 5 7
-1.068997	1 5 8
-1.063602	1 5 9
-0.8631839	1 5 </s>
-1.115895	2 5 0
-0.9450523	2 5 1
-1.144185	2 5 2
-1.078433	2 5 3
-0.9503648	2 5 4
-1.104313	2 5 5
-1.082037	2 5 6
-1.076642	2 5 7
-1.181215	2 5 8
-1.104313	2 5 9
-0.8158445	2 5 </s>
-1.169592	3 5 0
-0.9049212	3 5 1
-1.120696	3 5 2
-1.130867	3 5 3
-0.9708497	3 5 4
-1.114705	3 5 5
-1.091538	3 5 6
-1.025397	3 5 7
-1.162893	3 5 8
-1.137086	3 5 9
-0.8029032	3 5 </s>
-1.084305	4 5 0
-1.065878	4 5 1
-1.054431	4 5 2
-1.07896	4 5 3
-1.045733	4 5 4
-1.119291	4 5 5
-1.096578	4 5 6
-1.054431	4 5 7
-1.054431	4 5 8
-1.032406	4 5 9
-0.8391593	4 5 </s>
-1.065846	5 5 0
-0.9273767	5 5 1
-1.065846	5 5 2
-1.133098	5 5 3
-0.963473	5 5 4
-1.090346	5 5 5
-1.078866	5 5 6
-1.164132	5 5 7
-1.114258	5 5 8
-1.064017	5 5 9
-0.8818857	5 5 </s>
-1.20205	6 5 0
-0.9190929	6 5 1
-1.093956	6 5 2
-1.090291	6 5 3
-0.9379509	6 5 4
-1.142585	6 5 5
-1.11662	6 5 6
-1.081261	6 5 7
-1.083052	6 5 8
-1.10514	6 5 9
-0.8323904	6 5 </s>
-1.026614	7 5 0
-1.028231	7 5 1
-1.08901	7 5 2
-1.102258	7 5 3
-0.9566789	7 5 4
-1.079789	7 5 5
-1.119906	7 5 6
-1.0672	7 5 7
-1.134147	7 5 8
-1.115922	7 5 9
-0.834152	7 5 </s>
-1.199294	8 5 0
-0.9698346	8 5 1
-1.15812	8 5 2
-0.9975805	8 5 3
-0.9242187	8 5 4
-1.062521	8 5 5
-1.11455	8 5 6
-1.143106	8 5 7
-1.066038	8 5 8
-1.116529	8 5 9
-0.8452497	8 5 </s>
-1.128945	9 5 0
-0.9528537	9 5 1
-1.091312	9 5 2
-1.119685	9 5 3
-1.017312	9 5 4
-1.098234	9 5 5
-1.086193	9 5 6
-1.050388	9 5 7
-1.082813	9 5 8
-1.0845	9 5 9
-0.8373771	9 5 </s>
-1.070439	<s> 5 0
-0.9399309	<s> 5 1
-1.014073	<s> 5 2
-0.9968008	<s> 5 3
-0.886551	<s> 5 4
-1.084837	<s> 5 5
-1.000803	<s> 5 6
-1.002819	<s> 5 7
-1.051956	<s> 5 8
-0.9898835	<s> 5 9
-1.073183	0 6 0
-1.037185	0 6 1
-1.01788	0 6 2
-1.067854	0 6 3
-0.9632446	0 6 4
-1.097061	0 6 5
-1.082212	0 6 6
-1.057388	0 6 7
-1.196338	0 6 8
-1.122329	0 6 9
-0.8417885	0 6 </s>
-1.0392	1 6 0
-1.022676	1 6 1
-1.065228	1 6 2
-1.1167	1 6 3
-1.065228	1 6 4
-1.020366	1 6 5
-1.105345	1 6 6
-1.06779	1 6 7
-1.044039	1 6 8
-1.063953	1 6 9
-0.8891369	1 6 </s>
-1.014902	2 6 0
-0.9814785	2 6 1
-1.042615	2 6 2
-1.119781	2 6 3
-0.9800186	2 6 4
-1.102052	2 6 5
-1.148884	2 6 6
-1.142481	2 6 7
-1.117775	2 6 8
-1.098209	2 6 9
-0.8248253	2 6 </s>
-1.058936	3 6 0
-0.931805	3 6 1
-1.148437	3 6 2
-1.177475	3 6 3
-0.9547033	3 6 4
-1.111189	3 6 5
-1.071422	3 6 6
-1.097525	3 6 7
-1.09945	3 6 8
-1.078721	3 6 9
-0.8474069	3 6 </s>
-1.064526	4 6 0
-1.077932	4 6 1
-1.065848	4 6 2
-1.133016	4 6 3
-0.9895454	4 6 4
-1.071177	4 6 5
-1.045164	4 6 6
-1.032719	4 6 7
-1.107506	4 6 8
-1.097422	4 6 9
-0.8461233	4 6 </s>
-1.096763	5 6 0
-0.9825364	5 6 1
-1.056375	5 6 2
-1.129231	5 6 3
-0.9783131	5 6 4
-1.113649	5 6 5
-1.131218	5 6 6
-1.160045	5 6 7
-1.070001	5 6 8
-1.019426	5 6 9
-0.8301883	5 6 </s>
-1.139611	6 6 0
-0.91001	6 6 1
-1.115588	6 6 2
-1.125437	6 6 3
-0.9882218	6 6 4
-1.11171	6 6 5
-1.059059	6 6 6
-1.019848	6 6 7
-1.21592	6 6 8
-1.150026	6 6 9
-0.8001921	6 6 </s>
-1.12124	7 6 0
-1.09166	7 6 1
-1.049131	7 6 2
-1.152984	7 6 3
-0.9680635	7 6 4
-1.050755	7 6 5
-1.089876	7 6 6
-1.148886	7 6 7
-1.039515	7 6 8
-1.030108	7 6 9
-0.8230895	7 6 </s>
-1.092146	8 6 0
-0.9406675	8 6 1
-1.164208	8 6 2
-1.031917	8 6 3
-0.9600877	8 6 4
-1.190404	8 6 5
-1.190404	8 6 6
-1.028804	8 6 7
-1.078022	8 6 8
-1.131569	8 6 9
-0.8141489	8 6 </s>
-1.053226	9 6 0
-0.9671403	9 6 1
-1.089802	9 6 2
-1.098984	9 6 3
-0.9143165	9 6 4
-1.125777	9 6 5
-1.098984	9 6 6
-1.100844	9 6 7
-1.141864	9 6 8
-1.137786	9 6 9
-0.8470233	9 6 </s>
-0.9907089	<s> 6 0
-0.9599335	<s> 6 1
-1.023833	<s> 6 2
-1.02995	<s> 6 3
-0.8832352	<s> 6 4
-1.02995	<s> 6 5
-1.019802	<s> 6 6
-0.9963737	<s> 6 7
-1.067458	<s> 6 8
-1.027901	<s> 6 9
-1.091896	0 7 0
-0.9285793	0 7 1
-1.04879	0 7 2
-1.095689	0 7 3
-0.9622624	0 7 4
-1.099516	0 7 5
-1.069809	0 7 6
-1.177162	0 7 7
-1.05395	0 7 8
-1.186452	0 7 9
-0.860338	0 7 </s>
-1.043915	1 7 0
-1.077871	1 7 1
-1.039103	1 7 2
-1.064983	1 7 3
-1.034343	1 7 4
-1.091153	1 7 5
-1.083135	1 7 6
-1.107648	1 7 7
-1.09795	1 7 8
-1.087126	1 7 9
-0.8158206	1 7 </s>
-1.13199	2 7 0
-0.9630986	2 7 1
-1.196993	2 7 2
-1.065321	2 7 3
-0.943736	2 7 4
-1.096479	2 7 5
-1.030045	2 7 6
-1.143835	2 7 7
-1.137872	2 7 8
-1.149881	2 7 9
-0.7821939	2 7 </s>
-1.171957	3 7 0
-0.9269644	3 7 1
-1.156245	3 7 2
-1.128492	3 7 3
-0.9469202	3 7 4
-1.120297	3 7 5
-1.04931	3 7 6
-1.122331	3 7 7
-1.072313	3 7 8
-1.136844	3 7 9
-0.7984645	3 7 </s>
-1.057191	4 7 0
-1.060973	4 7 1
-1.088411	4 7 2
-1.068637	4 7 3
-1.072521	4 7 4
-1.133869	4 7 5
-1.060973	4 7 6
-1.026893	4 7 7
-1.060973	4 7 8
-1.063513	4 7 9
-0.8350913	4 7 </s>
-1.094483	5 7 0
-0.9136707	5 7 1
-1.101661	5 7 2
-1.096266	5 7 3
-0.9255699	5 7 4
-1.141428	5 7 5
-1.161726	5 7 6
-1.135519	5 7 7
-1.10896	5 7 8
-1.141428	5 7 9
-0.8088515	5 7 </s>
-1.095484	6 7 0
-0.9513947	6 7 1
-1.023481	6 7 2
-1.088422	6 7 3
-0.9777236	6 7 4
-1.074634	6 7 5
-1.146414	6 7 6
-1.099058	6 7 7
-1.15246	6 7 8
-1.062918	6 7 9
-0.8722134	6 7 </s>
-1.094685	7 7 0
-0.9269644	7 7 1
-1.108288	7 7 2
-1.083355	7 7 3
-0.9455609	7 7 4
-1.114251	7 7 5
-1.068694	7 7 6
-1.096602	7 7 7
-1.122331	7 7 8
-1.16741	7 7 9
-0.8486509	7 7 </s>
-1.080958	8 7 0
-0.975587	8 7 1
-1.125925	8 7 2
-1.072148	8 7 3
-0.9305282	8 7 4
-1.102859	8 7 5
-1.144065	8 7 6
-1.127903	8 7 7
-1.125925	8 7 8
-1.048392	8 7 9
-0.8389378	8 7 </s>
-1.130259	9 7 0
-0.8944957	9 7 1
-1.0843	9 7 2
-1.041093	9 7 3
-0.9826905	9 7 4
-1.110515	9 7 5
-1.126238	9 7 6
-1.168231	9 7 7
-1.063024	9 7 8
-1.089785	9 7 9
-0.8761101	9 7 </s>
-1.045254	<s> 7 0
-0.9339271	<s> 7 1
-0.9784635	<s> 7 2
-1.03659	<s> 7 3
-0.9255428	<s> 7 4
-1.023908	<s> 7 5
-0.9822318	<s> 7 6
-1.023908	<s> 7 7
-1.057457	<s> 7 8
-1.015656	<s> 7 9
-1.113475	0 8 0
-0.9755412	0 8 1
-1.099496	0 8 2
-1.049437	0 8 3
-0.9227505	0 8 4
-1.074673	0 8 5
-1.076533	0 8 6
-1.054722	0 8 7
-1.205842	0 8 8
-1.082161	0 8 9
-0.8936602	0 8 </s>
-1.031931	1 8 0
-1.079401	1 8 1
-1.082049	1 8 2
-1.101053	1 8 3
-1.06768	1 8 4
-1.068967	1 8 5
-1.084714	1 8 6
-1.037889	1 8 7
-1.091447	1 8 8
-1.087395	1 8 9
-0.8119798	1 8 </s>
-1.061872	2 8 0
-0.9525269	2 8 1
-1.070976	2 8 2
-1.134258	2 8 3
-0.9725968	2 8 4
-1.095584	2 8 5
-1.093641	2 8 6
-1.140692	2 8 7
-1.091706	2 8 8
-1.065491	2 8 9
-0.8641049	2 8 </s>
-1.061667	3 8 0
-0.9333086	3 8 1
-1.197616	3 8 2
-1.163758	3 8 3
-0.8965858	3 8 4
-1.088211	3 8 5
-1.065114	3 8 6
-1.124343	3 8 7
-1.116483	3 8 8
-1.072091	3 8 9
-0.8737229	3 8 </s>
-1.128399	4 8 0
-1.061453	4 8 1
-1.056517	4 8 2
-1.109976	4 8 3
-1.094975	4 8 4
-1.063941	4 8 5
-1.050426	4 8 6
-1.074042	4 8 7
-0.9670312	4 8 8
-1.034978	4 8 9
-0.8755462	4 8 </s>
-1.054665	5 8 0
-0.9498054	5 8 1
-1.118426	5 8 2
-1.100617	5 8 3
-0.9284205	5 8 4
-1.186047	5 8 5
-1.074288	5 8 6
-1.128645	5 8 7
-1.143369	5 8 8
-1.032563	5 8 9
-0.8609151	5 8 </s>
-1.138226	6 8 0
-0.910514	6 8 1
-1.003387	6 8 2
-1.111649	6 8 3
-1.015931	6 8 4
-1.15324	6 8 5
-1.13403	6 8 6
-1.048973	6 8 7
-1.088481	6 8 8
-1.082877	6 8 9
-0.8723096	6 8 </s>
-1.144928	7 8 0
-0.9823313	7 8 1
-1.036016	7 8 2
-1.118475	7 8 3
-0.9794552	7 8 4
-1.102963	7 8 5
-1.087986	7 8 6
-1.093542	7 8 7
-1.054358	7 8 8
-1.153402	7 8 9
-0.8194237	7 8 </s>
-1.07108	8 8 0
-0.9165283	8 8 1
-1.119179	8 8 2
-1.139196	8 8 3
-0.9227061	8 8 4
-1.153778	8 8 5
-1.072835	8 8 6
-1.109506	8 8 7
-1.094464	8 8 8
-1.100044	8 8 9
-0.874467	8 8 </s>
-1.11318	9 8 0
-0.9823323	9 8 1
-1.179466	9 8 2
-1.121186	9 8 3
-0.9351102	9 8 4
-1.04879	9 8 5
-1.101442	9 8 6
-1.117164	9 8 7
-1.078876	9 8 8
-1.091896	9 8 9
-0.8191468	9 8 </s>
-1.086681	<s> 8 0
-0.9341168	<s> 8 1
-0.9952033	<s> 8 2
-1.067483	<s> 8 3
-0.8913918	<s> 8 4
-1.018684	<s> 8 5
-0.9863499	<s> 8 6
-0.9991969	<s> 8 7
-1.051354	<s> 8 8
-1.007296	<s> 8 9
-1.122553	0 9 0
-0.8866553	0 9 1
-1.166331	0 9 2
-1.144933	0 9 3
-0.9633095	0 9 4
-1.059876	0 9 5
-1.08098	0 9 6
-1.095641	0 9 7
-1.061596	0 9 8
-1.177439	0 9 9
-0.8459963	0 9 </s>
-1.054009	1 9 0
-1.034704	1 9 1
-1.067373	1 9 2
-1.086802	1 9 3
-1.041044	1 9 4
-1.039769	1 9 5
-1.092516	1 9 6
-1.095402	1 9 7
-1.099767	1 9 8
-1.050079	1 9 9
-0.8540214	1 9 </s>
-1.164116	2 9 0
-0.9487981	2 9 1
-1.069372	2 9 2
-1.062478	2 9 3
-0.903831	2 9 4
-1.096244	2 9 5
-1.124889	2 9 6
-1.107477	2 9 7
-1.119007	2 9 8
-1.113204	2 9 9
-0.8663391	2 9 </s>
-1.162386	3 9 0
-0.8847109	3 9 1
-1.117084	3 9 2
-1.153385	3 9 3
-0.8993514	3 9 4
-1.050722	3 9 5
-1.110981	3 9 6
-1.054253	3 9 7
-1.119137	3 9 8
-1.133789	3 9 9
-0.906861	3 9 </s>
-1.092391	4 9 0
-1.093781	4 9 1
-1.04511	4 9 2
-1.010444	4 9 3
-1.088248	4 9 4
-1.055181	4 9 5
-1.057736	4 9 6
-1.089625	4 9 7
-1.026834	4 9 8
-1.046356	4 9 9
-0.891579	4 9 </s>
-1.118266	5 9 0
-0.9696414	5 9 1
-1.101083	5 9 2
-1.104843	5 9 3
-0.9200284	5 9 4
-1.088173	5 9 5
-1.152704	5 9 6
-1.005673	5 9 7
-1.116323	5 9 8
-1.080965	5 9 9
-0.8913832	5 9 </s>
-1.131954	6 9 0
-0.9414938	6 9 1
-1.092013	6 9 2
-1.045529	6 9 3
-0.9721	6 9 4
-1.099343	6 9 5
-1.135957	6 9 6
-1.037441	6 9 7
-1.131954	6 9 8
-1.095662	6 9 9
-0.8672661	6 9 </s>
-1.079333	7 9 0
-0.9186544	7 9 1
-1.070341	7 9 2
-1.099796	7 9 3
-0.9835143	7 9 4
-1.072124	7 9 5
-1.079333	7 9 6
-1.169929	7 9 7
-1.072124	7 9 8
-1.103622	7 9 9
-0.8907042	7 9 </s>
-1.150351	8 9 0
-0.9155853	8 9 1
-1.142233	8 9 2
-1.146273	8 9 3
-0.9155853	8 9 4
-1.068447	8 9 5
-1.015789	8 9 6
-1.096475	8 9 7
-1.160716	8 9 8
-1.169191	8 9 9
-0.841203	8 9 </s>
-1.070528	9 9 0
-0.9854777	9 9 1
-1.084946	9 9 2
-1.066997	9 9 3
-0.9451462	9 9 4
-1.051454	9 9 5
-1.043054	9 9 6
-1.176393	9 9 7
-1.204422	9 9 8
-1.092338	9 9 9
-0.8511679	9 9 </s>
-1.018475	<s> 9 0
-0.9381115	<s> 9 1
-1.028742	<s> 9 2
-1.059969	<s> 9 3
-0.8902509	<s> 9 4
-0.9723118	<s> 9 5
-1.036077	<s> 9 6
-1.054422	<s> 9 7
-1.023578	<s> 9 8
-1.010432	<s> 9 9

\end\
